digraph Tree {
node [shape=box, style="filled, rounded", color="black", fontname=helvetica] ;
edge [fontname=helvetica] ;
0 [label="Age <= 0.5\ngini = 0.48\nsamples = 20\nvalue = [8, 12]\nclass = Bying (Yes)", fillcolor="#399de555"] ;
1 [label="gini = 0.0\nsamples = 6\nvalue = [0, 6]\nclass = Bying (Yes)", fillcolor="#399de5ff"] ;
0 -> 1 [labeldistance=2.5, labelangle=45, headlabel="True"] ;
2 [label="Student <= 8.5\ngini = 0.49\nsamples = 14\nvalue = [8, 6]\nclass = Buying (No)", fillcolor="#e5813940"] ;
0 -> 2 [labeldistance=2.5, labelangle=-45, headlabel="False"] ;
3 [label="Age <= 1.5\ngini = 0.219\nsamples = 8\nvalue = [7, 1]\nclass = Buying (No)", fillcolor="#e58139db"] ;
2 -> 3 ;
4 [label="gini = 0.0\nsamples = 6\nvalue = [6, 0]\nclass = Buying (No)", fillcolor="#e58139ff"] ;
3 -> 4 ;
5 [label="Credit-Rating <= 3.5\ngini = 0.5\nsamples = 2\nvalue = [1, 1]\nclass = Buying (No)", fillcolor="#e5813900"] ;
3 -> 5 ;
6 [label="gini = 0.0\nsamples = 1\nvalue = [1, 0]\nclass = Buying (No)", fillcolor="#e58139ff"] ;
5 -> 6 ;
7 [label="gini = 0.0\nsamples = 1\nvalue = [0, 1]\nclass = Bying (Yes)", fillcolor="#399de5ff"] ;
5 -> 7 ;
8 [label="Income <= 6.5\ngini = 0.278\nsamples = 6\nvalue = [1, 5]\nclass = Bying (Yes)", fillcolor="#399de5cc"] ;
2 -> 8 ;
9 [label="Credit-Rating <= 3.5\ngini = 0.444\nsamples = 3\nvalue = [1, 2]\nclass = Bying (Yes)", fillcolor="#399de57f"] ;
8 -> 9 ;
10 [label="gini = 0.0\nsamples = 1\nvalue = [1, 0]\nclass = Buying (No)", fillcolor="#e58139ff"] ;
9 -> 10 ;
11 [label="gini = 0.0\nsamples = 2\nvalue = [0, 2]\nclass = Bying (Yes)", fillcolor="#399de5ff"] ;
9 -> 11 ;
12 [label="gini = 0.0\nsamples = 3\nvalue = [0, 3]\nclass = Bying (Yes)", fillcolor="#399de5ff"] ;
8 -> 12 ;
}